digraph Tree {
node [shape=box, style="filled, rounded", color="black", fontname="helvetica"] ;
edge [fontname="helvetica"] ;
0 [label="sqft <= 0.865\nsquared_error = 1576235189481.354\nsamples = 1268\nvalue = 1589427.512", fillcolor="#fbede2"] ;
1 [label="sqft <= -0.141\nsquared_error = 354725322917.883\nsamples = 1112\nvalue = 1220690.487", fillcolor="#fcf2eb"] ;
0 -> 1 [labeldistance=2.5, labelangle=45, headlabel="True"] ;
2 [label="sqft <= -0.538\nsquared_error = 109026120704.725\nsamples = 759\nvalue = 936489.283", fillcolor="#fdf6f1"] ;
1 -> 2 ;
3 [label="sqft <= -0.757\nsquared_error = 42114084384.651\nsamples = 375\nvalue = 726393.136", fillcolor="#fef9f6"] ;
2 -> 3 ;
4 [label="(...)", fillcolor="#C0C0C0"] ;
3 -> 4 ;
59 [label="(...)", fillcolor="#C0C0C0"] ;
3 -> 59 ;
108 [label="city_Oakville <= 0.5\nsquared_error = 89168498188.263\nsamples = 384\nvalue = 1141661.302", fillcolor="#fdf3ec"] ;
2 -> 108 ;
109 [label="(...)", fillcolor="#C0C0C0"] ;
108 -> 109 ;
158 [label="(...)", fillcolor="#C0C0C0"] ;
108 -> 158 ;
189 [label="sqft <= 0.374\nsquared_error = 335935753077.286\nsamples = 353\nvalue = 1831763.329", fillcolor="#fbe9dd"] ;
1 -> 189 ;
190 [label="city_Oakville <= 0.5\nsquared_error = 177298217950.473\nsamples = 258\nvalue = 1629061.966", fillcolor="#fbece2"] ;
189 -> 190 ;
191 [label="(...)", fillcolor="#C0C0C0"] ;
190 -> 191 ;
232 [label="(...)", fillcolor="#C0C0C0"] ;
190 -> 232 ;
259 [label="city_Oakville <= 0.5\nsquared_error = 352132074792.52\nsamples = 95\nvalue = 2382257.558", fillcolor="#f9e2d1"] ;
189 -> 259 ;
260 [label="(...)", fillcolor="#C0C0C0"] ;
259 -> 260 ;
279 [label="(...)", fillcolor="#C0C0C0"] ;
259 -> 279 ;
296 [label="sqft <= 2.011\nsquared_error = 2405546613405.438\nsamples = 156\nvalue = 4217860.667", fillcolor="#f4c8a8"] ;
0 -> 296 [labeldistance=2.5, labelangle=-45, headlabel="False"] ;
297 [label="lotArea <= -1.452\nsquared_error = 457093143508.354\nsamples = 95\nvalue = 3251327.516", fillcolor="#f6d5be"] ;
296 -> 297 ;
298 [label="bath <= 1.589\nsquared_error = 1623749786500.0\nsamples = 10\nvalue = 4133250.0", fillcolor="#f4c9aa"] ;
297 -> 298 ;
299 [label="(...)", fillcolor="#C0C0C0"] ;
298 -> 299 ;
300 [label="(...)", fillcolor="#C0C0C0"] ;
298 -> 300 ;
301 [label="sqft <= 1.511\nsquared_error = 217569814609.926\nsamples = 85\nvalue = 3147571.929", fillcolor="#f7d7c0"] ;
297 -> 301 ;
302 [label="(...)", fillcolor="#C0C0C0"] ;
301 -> 302 ;
321 [label="(...)", fillcolor="#C0C0C0"] ;
301 -> 321 ;
330 [label="sqft <= 3.529\nsquared_error = 1719345705477.117\nsamples = 61\nvalue = 5723117.213", fillcolor="#efb387"] ;
296 -> 330 ;
331 [label="sqft <= 2.096\nsquared_error = 679002976188.32\nsamples = 39\nvalue = 4970866.667", fillcolor="#f1bd98"] ;
330 -> 331 ;
332 [label="(...)", fillcolor="#C0C0C0"] ;
331 -> 332 ;
333 [label="(...)", fillcolor="#C0C0C0"] ;
331 -> 333 ;
346 [label="sqft <= 5.936\nsquared_error = 782121402153.93\nsamples = 22\nvalue = 7056652.273", fillcolor="#eba069"] ;
330 -> 346 ;
347 [label="(...)", fillcolor="#C0C0C0"] ;
346 -> 347 ;
352 [label="(...)", fillcolor="#C0C0C0"] ;
346 -> 352 ;
}